digraph Tree {
node [shape=box, fontname="helvetica"] ;
edge [fontname="helvetica"] ;
0 [label="X[28] <= 62.5\nsquared_error = 0.116\nsamples = 2567\nvalue = 0.307"] ;
1 [label="X[49] <= 0.414\nsquared_error = 0.092\nsamples = 2244\nvalue = 0.248"] ;
0 -> 1 [labeldistance=2.5, labelangle=45, headlabel="True"] ;
2 [label="X[52] <= 0.631\nsquared_error = 0.065\nsamples = 2093\nvalue = 0.207"] ;
1 -> 2 ;
3 [label="X[28] <= 30.5\nsquared_error = 0.053\nsamples = 605\nvalue = 0.067"] ;
2 -> 3 ;
4 [label="squared_error = 0.053\nsamples = 312\nvalue = -0.005"] ;
3 -> 4 ;
5 [label="squared_error = 0.042\nsamples = 293\nvalue = 0.144"] ;
3 -> 5 ;
6 [label="X[4] <= 1.5\nsquared_error = 0.059\nsamples = 1488\nvalue = 0.264"] ;
2 -> 6 ;
7 [label="squared_error = 0.044\nsamples = 955\nvalue = 0.202"] ;
6 -> 7 ;
8 [label="squared_error = 0.067\nsamples = 533\nvalue = 0.376"] ;
6 -> 8 ;
9 [label="X[45] <= 3.7\nsquared_error = 0.12\nsamples = 151\nvalue = 0.805"] ;
1 -> 9 ;
10 [label="X[27] <= 1.5\nsquared_error = 0.051\nsamples = 55\nvalue = 0.485"] ;
9 -> 10 ;
11 [label="squared_error = 0.024\nsamples = 20\nvalue = 0.321"] ;
10 -> 11 ;
12 [label="squared_error = 0.043\nsamples = 35\nvalue = 0.579"] ;
10 -> 12 ;
13 [label="X[43] <= -0.717\nsquared_error = 0.067\nsamples = 96\nvalue = 0.989"] ;
9 -> 13 ;
14 [label="squared_error = 0.033\nsamples = 23\nvalue = 1.297"] ;
13 -> 14 ;
15 [label="squared_error = 0.038\nsamples = 73\nvalue = 0.892"] ;
13 -> 15 ;
16 [label="X[49] <= 0.414\nsquared_error = 0.088\nsamples = 323\nvalue = 0.721"] ;
0 -> 16 [labeldistance=2.5, labelangle=-45, headlabel="False"] ;
17 [label="X[28] <= 66.5\nsquared_error = 0.065\nsamples = 304\nvalue = 0.685"] ;
16 -> 17 ;
18 [label="X[43] <= -1.153\nsquared_error = 0.043\nsamples = 126\nvalue = 0.541"] ;
17 -> 18 ;
19 [label="squared_error = 0.028\nsamples = 28\nvalue = 0.738"] ;
18 -> 19 ;
20 [label="squared_error = 0.034\nsamples = 98\nvalue = 0.485"] ;
18 -> 20 ;
21 [label="X[0] <= 35.5\nsquared_error = 0.055\nsamples = 178\nvalue = 0.786"] ;
17 -> 21 ;
22 [label="squared_error = 0.039\nsamples = 84\nvalue = 0.681"] ;
21 -> 22 ;
23 [label="squared_error = 0.051\nsamples = 94\nvalue = 0.881"] ;
21 -> 23 ;
24 [label="X[44] <= 0.339\nsquared_error = 0.097\nsamples = 19\nvalue = 1.307"] ;
16 -> 24 ;
25 [label="X[28] <= 64.5\nsquared_error = 0.042\nsamples = 14\nvalue = 1.45"] ;
24 -> 25 ;
26 [label="squared_error = 0.025\nsamples = 2\nvalue = 1.831"] ;
25 -> 26 ;
27 [label="squared_error = 0.016\nsamples = 12\nvalue = 1.386"] ;
25 -> 27 ;
28 [label="X[29] <= 6.8\nsquared_error = 0.033\nsamples = 5\nvalue = 0.906"] ;
24 -> 28 ;
29 [label="squared_error = 0.005\nsamples = 2\nvalue = 1.098"] ;
28 -> 29 ;
30 [label="squared_error = 0.01\nsamples = 3\nvalue = 0.777"] ;
28 -> 30 ;
}